<?xml version="1.0"?>
<opencv_storage>
<cascade>
  <stageType>BOOST</stageType>
  <featureType>HAAR</featureType>
  <height>50</height>
  <width>40</width>
  <stageParams>
    <boostType>GAB</boostType>
    <minHitRate>9.9500000476837158e-01</minHitRate>
    <maxFalseAlarm>5.0000000000000000e-01</maxFalseAlarm>
    <weightTrimRate>9.4999998807907104e-01</weightTrimRate>
    <maxDepth>1</maxDepth>
    <maxWeakCount>100</maxWeakCount></stageParams>
  <featureParams>
    <maxCatCount>0</maxCatCount>
    <featSize>1</featSize>
    <mode>BASIC</mode></featureParams>
  <stageNum>9</stageNum>
  <stages>
    <!-- stage 0 -->
    <_>
      <maxWeakCount>4</maxWeakCount>
      <stageThreshold>-1.5763952732086182e+00</stageThreshold>
      <weakClassifiers>
        <_>
          <internalNodes>
            0 -1 31 5.1777917891740799e-02</internalNodes>
          <leafValues>
            -8.3763134479522705e-01 3.2743361592292786e-01</leafValues></_>
        <_>
          <internalNodes>
            0 -1 1 -2.3706261068582535e-02</internalNodes>
          <leafValues>
            4.5036047697067261e-01 -6.1672961711883545e-01</leafValues></_>
        <_>
          <internalNodes>
            0 -1 65 -2.5648768059909344e-03</internalNodes>
          <leafValues>
            5.2920985221862793e-01 -5.3758984804153442e-01</leafValues></_>
        <_>
          <internalNodes>
            0 -1 33 -8.9665292762219906e-04</internalNodes>
          <leafValues>
            4.1555547714233398e-01 -5.2620071172714233e-01</leafValues></_></weakClassifiers></_>
    <!-- stage 1 -->
    <_>
      <maxWeakCount>6</maxWeakCount>
      <stageThreshold>-1.5857410430908203e+00</stageThreshold>
      <weakClassifiers>
        <_>
          <internalNodes>
            0 -1 23 2.0249116420745850e-01</internalNodes>
          <leafValues>
            -8.1318682432174683e-01 7.0588237047195435e-01</leafValues></_>
        <_>
          <internalNodes>
            0 -1 69 4.4692456722259521e-02</internalNodes>
          <leafValues>
            -5.9367388486862183e-01 6.3710606098175049e-01</leafValues></_>
        <_>
          <internalNodes>
            0 -1 43 1.1820595711469650e-02</internalNodes>
          <leafValues>
            -3.9774307608604431e-01 4.8589983582496643e-01</leafValues></_>
        <_>
          <internalNodes>
            0 -1 41 4.8825107514858246e-03</internalNodes>
          <leafValues>
            -3.4371852874755859e-01 5.1001173257827759e-01</leafValues></_>
        <_>
          <internalNodes>
            0 -1 63 -6.8626663414761424e-04</internalNodes>
          <leafValues>
            3.8322860002517700e-01 -4.1111400723457336e-01</leafValues></_>
        <_>
          <internalNodes>
            0 -1 5 -7.6227843237575144e-05</internalNodes>
          <leafValues>
            -7.0429027080535889e-01 2.1749669313430786e-01</leafValues></_></weakClassifiers></_>
    <!-- stage 2 -->
    <_>
      <maxWeakCount>8</maxWeakCount>
      <stageThreshold>-1.6238491535186768e+00</stageThreshold>
      <weakClassifiers>
        <_>
          <internalNodes>
            0 -1 12 3.6533874273300171e-01</internalNodes>
          <leafValues>
            -7.9023510217666626e-01 6.2962961196899414e-01</leafValues></_>
        <_>
          <internalNodes>
            0 -1 18 2.2212231531739235e-02</internalNodes>
          <leafValues>
            -5.8819746971130371e-01 3.7899309396743774e-01</leafValues></_>
        <_>
          <internalNodes>
            0 -1 66 6.2157034873962402e-02</internalNodes>
          <leafValues>
            -2.9293709993362427e-01 5.6893181800842285e-01</leafValues></_>
        <_>
          <internalNodes>
            0 -1 49 7.4674264760687947e-04</internalNodes>
          <leafValues>
            -2.9352843761444092e-01 5.1104831695556641e-01</leafValues></_>
        <_>
          <internalNodes>
            0 -1 71 -7.2370640933513641e-02</internalNodes>
          <leafValues>
            7.9831635951995850e-01 -1.8776606023311615e-01</leafValues></_>
        <_>
          <internalNodes>
            0 -1 2 -3.1133480370044708e-02</internalNodes>
          <leafValues>
            5.9555125236511230e-01 -2.1578828990459442e-01</leafValues></_>
        <_>
          <internalNodes>
            0 -1 21 1.2328260578215122e-02</internalNodes>
          <leafValues>
            -2.3425254225730896e-01 5.7550269365310669e-01</leafValues></_>
        <_>
          <internalNodes>
            0 -1 78 -1.3892473361920565e-05</internalNodes>
          <leafValues>
            -6.3547611236572266e-01 2.3194953799247742e-01</leafValues></_></weakClassifiers></_>
    <!-- stage 3 -->
    <_>
      <maxWeakCount>9</maxWeakCount>
      <stageThreshold>-1.7146375179290771e+00</stageThreshold>
      <weakClassifiers>
        <_>
          <internalNodes>
            0 -1 11 4.2172330617904663e-01</internalNodes>
          <leafValues>
            -7.8119349479675293e-01 4.4444444775581360e-01</leafValues></_>
        <_>
          <internalNodes>
            0 -1 0 -5.3408332169055939e-02</internalNodes>
          <leafValues>
            4.8669755458831787e-01 -4.8056808114051819e-01</leafValues></_>
        <_>
          <internalNodes>
            0 -1 57 2.8954846784472466e-03</internalNodes>
          <leafValues>
            -4.0847879648208618e-01 3.5526812076568604e-01</leafValues></_>
        <_>
          <internalNodes>
            0 -1 36 -2.3500705137848854e-03</internalNodes>
          <leafValues>
            3.6817899346351624e-01 -3.5308346152305603e-01</leafValues></_>
        <_>
          <internalNodes>
            0 -1 50 4.7226296737790108e-04</internalNodes>
          <leafValues>
            -2.9067733883857727e-01 4.3082880973815918e-01</leafValues></_>
        <_>
          <internalNodes>
            0 -1 3 2.6443321257829666e-04</internalNodes>
          <leafValues>
            1.7370231449604034e-01 -8.4454172849655151e-01</leafValues></_>
        <_>
          <internalNodes>
            0 -1 51 4.7227713366737589e-05</internalNodes>
          <leafValues>
            -2.8219467401504517e-01 4.6079343557357788e-01</leafValues></_>
        <_>
          <internalNodes>
            0 -1 56 -4.8419713973999023e-02</internalNodes>
          <leafValues>
            5.2510321140289307e-01 -2.4812972545623779e-01</leafValues></_>
        <_>
          <internalNodes>
            0 -1 55 1.3937475159764290e-03</internalNodes>
          <leafValues>
            -2.5399515032768250e-01 4.8922044038772583e-01</leafValues></_></weakClassifiers></_>
    <!-- stage 4 -->
    <_>
      <maxWeakCount>10</maxWeakCount>
      <stageThreshold>-1.2290810346603394e+00</stageThreshold>
      <weakClassifiers>
        <_>
          <internalNodes>
            0 -1 10 -3.7144664674997330e-02</internalNodes>
          <leafValues>
            7.3170728981494904e-02 -7.8478664159774780e-01</leafValues></_>
        <_>
          <internalNodes>
            0 -1 20 2.7465820312500000e-01</internalNodes>
          <leafValues>
            -4.5819079875946045e-01 3.6278963088989258e-01</leafValues></_>
        <_>
          <internalNodes>
            0 -1 70 2.6832122355699539e-02</internalNodes>
          <leafValues>
            -2.6074129343032837e-01 4.8219540715217590e-01</leafValues></_>
        <_>
          <internalNodes>
            0 -1 7 -1.9699928816407919e-04</internalNodes>
          <leafValues>
            -6.3466942310333252e-01 1.8194122612476349e-01</leafValues></_>
        <_>
          <internalNodes>
            0 -1 25 3.1240833923220634e-03</internalNodes>
          <leafValues>
            -2.3114395141601563e-01 5.3753316402435303e-01</leafValues></_>
        <_>
          <internalNodes>
            0 -1 40 2.1085895597934723e-02</internalNodes>
          <leafValues>
            -2.6354959607124329e-01 5.0363385677337646e-01</leafValues></_>
        <_>
          <internalNodes>
            0 -1 38 -3.8942649960517883e-02</internalNodes>
          <leafValues>
            7.5847709178924561e-01 -2.0550069212913513e-01</leafValues></_>
        <_>
          <internalNodes>
            0 -1 77 -2.5928942486643791e-03</internalNodes>
          <leafValues>
            -7.7511841058731079e-01 1.9679716229438782e-01</leafValues></_>
        <_>
          <internalNodes>
            0 -1 80 -9.3579909298568964e-04</internalNodes>
          <leafValues>
            -6.7746663093566895e-01 1.7598345875740051e-01</leafValues></_>
        <_>
          <internalNodes>
            0 -1 47 5.2976021543145180e-03</internalNodes>
          <leafValues>
            -2.7489307522773743e-01 5.4158711433410645e-01</leafValues></_></weakClassifiers></_>
    <!-- stage 5 -->
    <_>
      <maxWeakCount>12</maxWeakCount>
      <stageThreshold>-1.3710688352584839e+00</stageThreshold>
      <weakClassifiers>
        <_>
          <internalNodes>
            0 -1 60 -3.5200815647840500e-02</internalNodes>
          <leafValues>
            -1.3821138441562653e-01 -7.9363548755645752e-01</leafValues></_>
        <_>
          <internalNodes>
            0 -1 26 -6.6827568225562572e-03</internalNodes>
          <leafValues>
            1.9525752961635590e-01 -4.5610025525093079e-01</leafValues></_>
        <_>
          <internalNodes>
            0 -1 79 4.6343746362254024e-04</internalNodes>
          <leafValues>
            1.5787804126739502e-01 -6.8374508619308472e-01</leafValues></_>
        <_>
          <internalNodes>
            0 -1 68 1.4642863534390926e-03</internalNodes>
          <leafValues>
            -4.0300655364990234e-01 2.5022259354591370e-01</leafValues></_>
        <_>
          <internalNodes>
            0 -1 74 1.5239149433909915e-05</internalNodes>
          <leafValues>
            2.2475349903106689e-01 -4.6751266717910767e-01</leafValues></_>
        <_>
          <internalNodes>
            0 -1 24 1.7600433202460408e-03</internalNodes>
          <leafValues>
            -2.2048847377300262e-01 4.9424228072166443e-01</leafValues></_>
        <_>
          <internalNodes>
            0 -1 53 2.3793449508957565e-04</internalNodes>
          <leafValues>
            -2.3565922677516937e-01 4.2674094438552856e-01</leafValues></_>
        <_>
          <internalNodes>
            0 -1 37 1.3072779984213412e-04</internalNodes>
          <leafValues>
            -3.5001653432846069e-01 3.1255173683166504e-01</leafValues></_>
        <_>
          <internalNodes>
            0 -1 6 4.8084257286973298e-05</internalNodes>
          <leafValues>
            2.0690228044986725e-01 -5.2855950593948364e-01</leafValues></_>
        <_>
          <internalNodes>
            0 -1 73 1.3245209120213985e-03</internalNodes>
          <leafValues>
            -2.2957742214202881e-01 4.6719431877136230e-01</leafValues></_>
        <_>
          <internalNodes>
            0 -1 48 5.2773184143006802e-04</internalNodes>
          <leafValues>
            -2.4115499854087830e-01 4.5122984051704407e-01</leafValues></_>
        <_>
          <internalNodes>
            0 -1 72 -1.9417110830545425e-02</internalNodes>
          <leafValues>
            4.7919437289237976e-01 -2.7182814478874207e-01</leafValues></_></weakClassifiers></_>
    <!-- stage 6 -->
    <_>
      <maxWeakCount>12</maxWeakCount>
      <stageThreshold>-1.5551068782806396e+00</stageThreshold>
      <weakClassifiers>
        <_>
          <internalNodes>
            0 -1 42 -5.0184335559606552e-03</internalNodes>
          <leafValues>
            2.6315790414810181e-01 -7.5757575035095215e-01</leafValues></_>
        <_>
          <internalNodes>
            0 -1 16 1.2813723087310791e-01</internalNodes>
          <leafValues>
            -3.5439211130142212e-01 4.8266556859016418e-01</leafValues></_>
        <_>
          <internalNodes>
            0 -1 4 -2.6860965590458363e-05</internalNodes>
          <leafValues>
            -6.3353729248046875e-01 1.4850953221321106e-01</leafValues></_>
        <_>
          <internalNodes>
            0 -1 67 1.0186764597892761e-01</internalNodes>
          <leafValues>
            -1.6918291151523590e-01 6.5513628721237183e-01</leafValues></_>
        <_>
          <internalNodes>
            0 -1 29 7.7303096652030945e-02</internalNodes>
          <leafValues>
            -2.8639173507690430e-01 3.4383261203765869e-01</leafValues></_>
        <_>
          <internalNodes>
            0 -1 13 -3.1369053758680820e-03</internalNodes>
          <leafValues>
            4.8345735669136047e-01 -2.0208889245986938e-01</leafValues></_>
        <_>
          <internalNodes>
            0 -1 34 1.6974075697362423e-04</internalNodes>
          <leafValues>
            -2.8755104541778564e-01 3.4716421365737915e-01</leafValues></_>
        <_>
          <internalNodes>
            0 -1 46 7.3900641873478889e-03</internalNodes>
          <leafValues>
            -2.7625393867492676e-01 4.2521396279335022e-01</leafValues></_>
        <_>
          <internalNodes>
            0 -1 17 -3.2971084117889404e-02</internalNodes>
          <leafValues>
            5.7614368200302124e-01 -1.8867903947830200e-01</leafValues></_>
        <_>
          <internalNodes>
            0 -1 9 -9.8541953775566071e-05</internalNodes>
          <leafValues>
            -9.5354253053665161e-01 1.4272595942020416e-01</leafValues></_>
        <_>
          <internalNodes>
            0 -1 52 2.4438899708911777e-04</internalNodes>
          <leafValues>
            -2.9787015914916992e-01 3.5528147220611572e-01</leafValues></_>
        <_>
          <internalNodes>
            0 -1 58 4.6141934581100941e-04</internalNodes>
          <leafValues>
            -2.2915382683277130e-01 4.4182950258255005e-01</leafValues></_></weakClassifiers></_>
    <!-- stage 7 -->
    <_>
      <maxWeakCount>12</maxWeakCount>
      <stageThreshold>-1.3904998302459717e+00</stageThreshold>
      <weakClassifiers>
        <_>
          <internalNodes>
            0 -1 19 7.4423402547836304e-02</internalNodes>
          <leafValues>
            -7.4216026067733765e-01 1.</leafValues></_>
        <_>
          <internalNodes>
            0 -1 14 -1.8840153643395752e-05</internalNodes>
          <leafValues>
            -6.2793827056884766e-01 -4.0669771842658520e-03</leafValues></_>
        <_>
          <internalNodes>
            0 -1 22 1.3380119344219565e-04</internalNodes>
          <leafValues>
            8.2739010453224182e-02 -8.8577353954315186e-01</leafValues></_>
        <_>
          <internalNodes>
            0 -1 75 6.4356951043009758e-05</internalNodes>
          <leafValues>
            1.8449324369430542e-01 -5.1718229055404663e-01</leafValues></_>
        <_>
          <internalNodes>
            0 -1 8 3.5693235695362091e-02</internalNodes>
          <leafValues>
            -2.8326082229614258e-01 3.4323650598526001e-01</leafValues></_>
        <_>
          <internalNodes>
            0 -1 32 -2.5261063128709793e-02</internalNodes>
          <leafValues>
            -8.9980351924896240e-01 1.2076739966869354e-01</leafValues></_>
        <_>
          <internalNodes>
            0 -1 45 -1.6359325964003801e-03</internalNodes>
          <leafValues>
            3.3886542916297913e-01 -2.7831995487213135e-01</leafValues></_>
        <_>
          <internalNodes>
            0 -1 27 -7.3649606201797724e-04</internalNodes>
          <leafValues>
            4.2750707268714905e-01 -2.1485725045204163e-01</leafValues></_>
        <_>
          <internalNodes>
            0 -1 35 -6.5482735633850098e-02</internalNodes>
          <leafValues>
            5.8267855644226074e-01 -1.5198646485805511e-01</leafValues></_>
        <_>
          <internalNodes>
            0 -1 61 -3.0891548842191696e-02</internalNodes>
          <leafValues>
            6.5274930000305176e-01 -1.3750703632831573e-01</leafValues></_>
        <_>
          <internalNodes>
            0 -1 30 1.0874393628910184e-03</internalNodes>
          <leafValues>
            -2.2895260155200958e-01 4.5863148570060730e-01</leafValues></_>
        <_>
          <internalNodes>
            0 -1 59 -1.1357818730175495e-03</internalNodes>
          <leafValues>
            3.3779007196426392e-01 -3.2347199320793152e-01</leafValues></_></weakClassifiers></_>
    <!-- stage 8 -->
    <_>
      <maxWeakCount>9</maxWeakCount>
      <stageThreshold>-1.3491400480270386e+00</stageThreshold>
      <weakClassifiers>
        <_>
          <internalNodes>
            0 -1 15 -9.5585174858570099e-02</internalNodes>
          <leafValues>
            -1.1688311398029327e-01 -7.6731300354003906e-01</leafValues></_>
        <_>
          <internalNodes>
            0 -1 39 6.2210872769355774e-02</internalNodes>
          <leafValues>
            -3.5227799415588379e-01 3.9004448056221008e-01</leafValues></_>
        <_>
          <internalNodes>
            0 -1 76 -1.9602499378379434e-05</internalNodes>
          <leafValues>
            -6.7916876077651978e-01 1.2548813223838806e-01</leafValues></_>
        <_>
          <internalNodes>
            0 -1 62 -7.2283595800399780e-03</internalNodes>
          <leafValues>
            -9.5760095119476318e-01 7.0094183087348938e-02</leafValues></_>
        <_>
          <internalNodes>
            0 -1 54 3.9883016142994165e-04</internalNodes>
          <leafValues>
            -2.0105214416980743e-01 4.3907636404037476e-01</leafValues></_>
        <_>
          <internalNodes>
            0 -1 44 -1.1178853455930948e-03</internalNodes>
          <leafValues>
            3.8502532243728638e-01 -2.6828223466873169e-01</leafValues></_>
        <_>
          <internalNodes>
            0 -1 28 -1.9438713788986206e-02</internalNodes>
          <leafValues>
            2.9001301527023315e-01 -3.2361531257629395e-01</leafValues></_>
        <_>
          <internalNodes>
            0 -1 64 3.5230219364166260e-03</internalNodes>
          <leafValues>
            -2.2010008990764618e-01 4.3808770179748535e-01</leafValues></_>
        <_>
          <internalNodes>
            0 -1 81 2.8159676730865613e-05</internalNodes>
          <leafValues>
            1.3881845772266388e-01 -6.6414523124694824e-01</leafValues></_></weakClassifiers></_></stages>
  <features>
    <_>
      <rects>
        <_>
          0 1 12 39 -1.</_>
        <_>
          6 1 6 39 2.</_></rects>
      <tilted>0</tilted></_>
    <_>
      <rects>
        <_>
          0 2 36 5 -1.</_>
        <_>
          12 2 12 5 3.</_></rects>
      <tilted>0</tilted></_>
    <_>
      <rects>
        <_>
          0 4 18 10 -1.</_>
        <_>
          9 4 9 10 2.</_></rects>
      <tilted>0</tilted></_>
    <_>
      <rects>
        <_>
          0 5 2 6 -1.</_>
        <_>
          0 7 2 2 3.</_></rects>
      <tilted>0</tilted></_>
    <_>
      <rects>
        <_>
          0 9 1 3 -1.</_>
        <_>
          0 10 1 1 3.</_></rects>
      <tilted>0</tilted></_>
    <_>
      <rects>
        <_>
          0 10 1 4 -1.</_>
        <_>
          0 12 1 2 2.</_></rects>
      <tilted>0</tilted></_>
    <_>
      <rects>
        <_>
          0 12 4 3 -1.</_>
        <_>
          0 13 4 1 3.</_></rects>
      <tilted>0</tilted></_>
    <_>
      <rects>
        <_>
          0 17 1 9 -1.</_>
        <_>
          0 20 1 3 3.</_></rects>
      <tilted>0</tilted></_>
    <_>
      <rects>
        <_>
          1 1 22 16 -1.</_>
        <_>
          1 1 11 8 2.</_>
        <_>
          12 9 11 8 2.</_></rects>
      <tilted>0</tilted></_>
    <_>
      <rects>
        <_>
          1 2 1 3 -1.</_>
        <_>
          1 3 1 1 3.</_></rects>
      <tilted>0</tilted></_>
    <_>
      <rects>
        <_>
          1 3 39 2 -1.</_>
        <_>
          14 3 13 2 3.</_></rects>
      <tilted>0</tilted></_>
    <_>
      <rects>
        <_>
          1 7 39 27 -1.</_>
        <_>
          14 7 13 27 3.</_></rects>
      <tilted>0</tilted></_>
    <_>
      <rects>
        <_>
          1 8 39 24 -1.</_>
        <_>
          14 8 13 24 3.</_></rects>
      <tilted>0</tilted></_>
    <_>
      <rects>
        <_>
          1 12 14 2 -1.</_>
        <_>
          8 12 7 2 2.</_></rects>
      <tilted>0</tilted></_>
    <_>
      <rects>
        <_>
          2 1 4 1 -1.</_>
        <_>
          4 1 2 1 2.</_></rects>
      <tilted>0</tilted></_>
    <_>
      <rects>
        <_>
          2 2 12 32 -1.</_>
        <_>
          8 2 6 32 2.</_></rects>
      <tilted>0</tilted></_>
    <_>
      <rects>
        <_>
          2 8 16 37 -1.</_>
        <_>
          10 8 8 37 2.</_></rects>
      <tilted>0</tilted></_>
    <_>
      <rects>
        <_>
          2 12 12 36 -1.</_>
        <_>
          2 12 6 18 2.</_>
        <_>
          8 30 6 18 2.</_></rects>
      <tilted>0</tilted></_>
    <_>
      <rects>
        <_>
          3 1 20 16 -1.</_>
        <_>
          3 1 10 8 2.</_>
        <_>
          13 9 10 8 2.</_></rects>
      <tilted>0</tilted></_>
    <_>
      <rects>
        <_>
          3 7 36 3 -1.</_>
        <_>
          15 7 12 3 3.</_></rects>
      <tilted>0</tilted></_>
    <_>
      <rects>
        <_>
          4 9 36 40 -1.</_>
        <_>
          16 9 12 40 3.</_></rects>
      <tilted>0</tilted></_>
    <_>
      <rects>
        <_>
          4 10 10 13 -1.</_>
        <_>
          9 10 5 13 2.</_></rects>
      <tilted>0</tilted></_>
    <_>
      <rects>
        <_>
          4 37 1 3 -1.</_>
        <_>
          4 38 1 1 3.</_></rects>
      <tilted>0</tilted></_>
    <_>
      <rects>
        <_>
          5 11 33 22 -1.</_>
        <_>
          16 11 11 22 3.</_></rects>
      <tilted>0</tilted></_>
    <_>
      <rects>
        <_>
          5 36 9 4 -1.</_>
        <_>
          8 36 3 4 3.</_></rects>
      <tilted>0</tilted></_>
    <_>
      <rects>
        <_>
          6 23 23 6 -1.</_>
        <_>
          6 25 23 2 3.</_></rects>
      <tilted>0</tilted></_>
    <_>
      <rects>
        <_>
          6 25 9 22 -1.</_>
        <_>
          9 25 3 22 3.</_></rects>
      <tilted>0</tilted></_>
    <_>
      <rects>
        <_>
          8 0 26 3 -1.</_>
        <_>
          8 1 26 1 3.</_></rects>
      <tilted>0</tilted></_>
    <_>
      <rects>
        <_>
          8 19 22 24 -1.</_>
        <_>
          8 31 22 12 2.</_></rects>
      <tilted>0</tilted></_>
    <_>
      <rects>
        <_>
          9 0 28 36 -1.</_>
        <_>
          9 12 28 12 3.</_></rects>
      <tilted>0</tilted></_>
    <_>
      <rects>
        <_>
          9 19 23 2 -1.</_>
        <_>
          9 20 23 1 2.</_></rects>
      <tilted>0</tilted></_>
    <_>
      <rects>
        <_>
          10 8 21 17 -1.</_>
        <_>
          17 8 7 17 3.</_></rects>
      <tilted>0</tilted></_>
    <_>
      <rects>
        <_>
          10 10 16 14 -1.</_>
        <_>
          10 10 8 7 2.</_>
        <_>
          18 17 8 7 2.</_></rects>
      <tilted>0</tilted></_>
    <_>
      <rects>
        <_>
          10 23 10 8 -1.</_>
        <_>
          10 27 10 4 2.</_></rects>
      <tilted>0</tilted></_>
    <_>
      <rects>
        <_>
          11 20 10 3 -1.</_>
        <_>
          11 21 10 1 3.</_></rects>
      <tilted>0</tilted></_>
    <_>
      <rects>
        <_>
          12 0 21 18 -1.</_>
        <_>
          12 6 21 6 3.</_></rects>
      <tilted>0</tilted></_>
    <_>
      <rects>
        <_>
          12 1 9 9 -1.</_>
        <_>
          12 4 9 3 3.</_></rects>
      <tilted>0</tilted></_>
    <_>
      <rects>
        <_>
          13 0 4 8 -1.</_>
        <_>
          13 0 2 4 2.</_>
        <_>
          15 4 2 4 2.</_></rects>
      <tilted>0</tilted></_>
    <_>
      <rects>
        <_>
          14 0 11 15 -1.</_>
        <_>
          14 5 11 5 3.</_></rects>
      <tilted>0</tilted></_>
    <_>
      <rects>
        <_>
          14 0 14 14 -1.</_>
        <_>
          14 7 14 7 2.</_></rects>
      <tilted>0</tilted></_>
    <_>
      <rects>
        <_>
          14 0 15 18 -1.</_>
        <_>
          14 6 15 6 3.</_></rects>
      <tilted>0</tilted></_>
    <_>
      <rects>
        <_>
          14 12 8 11 -1.</_>
        <_>
          18 12 4 11 2.</_></rects>
      <tilted>0</tilted></_>
    <_>
      <rects>
        <_>
          15 0 12 2 -1.</_>
        <_>
          15 1 12 1 2.</_></rects>
      <tilted>0</tilted></_>
    <_>
      <rects>
        <_>
          15 6 18 12 -1.</_>
        <_>
          15 10 18 4 3.</_></rects>
      <tilted>0</tilted></_>
    <_>
      <rects>
        <_>
          15 25 8 6 -1.</_>
        <_>
          15 27 8 2 3.</_></rects>
      <tilted>0</tilted></_>
    <_>
      <rects>
        <_>
          16 36 22 6 -1.</_>
        <_>
          16 36 11 3 2.</_>
        <_>
          27 39 11 3 2.</_></rects>
      <tilted>0</tilted></_>
    <_>
      <rects>
        <_>
          17 14 9 12 -1.</_>
        <_>
          20 14 3 12 3.</_></rects>
      <tilted>0</tilted></_>
    <_>
      <rects>
        <_>
          17 14 11 9 -1.</_>
        <_>
          17 17 11 3 3.</_></rects>
      <tilted>0</tilted></_>
    <_>
      <rects>
        <_>
          17 18 10 3 -1.</_>
        <_>
          17 19 10 1 3.</_></rects>
      <tilted>0</tilted></_>
    <_>
      <rects>
        <_>
          17 21 19 3 -1.</_>
        <_>
          17 22 19 1 3.</_></rects>
      <tilted>0</tilted></_>
    <_>
      <rects>
        <_>
          17 27 17 3 -1.</_>
        <_>
          17 28 17 1 3.</_></rects>
      <tilted>0</tilted></_>
    <_>
      <rects>
        <_>
          18 25 2 2 -1.</_>
        <_>
          18 25 1 1 2.</_>
        <_>
          19 26 1 1 2.</_></rects>
      <tilted>0</tilted></_>
    <_>
      <rects>
        <_>
          18 30 4 4 -1.</_>
        <_>
          18 32 4 2 2.</_></rects>
      <tilted>0</tilted></_>
    <_>
      <rects>
        <_>
          19 14 6 3 -1.</_>
        <_>
          19 15 6 1 3.</_></rects>
      <tilted>0</tilted></_>
    <_>
      <rects>
        <_>
          19 27 3 3 -1.</_>
        <_>
          19 28 3 1 3.</_></rects>
      <tilted>0</tilted></_>
    <_>
      <rects>
        <_>
          19 39 12 3 -1.</_>
        <_>
          25 39 6 3 2.</_></rects>
      <tilted>0</tilted></_>
    <_>
      <rects>
        <_>
          21 9 12 39 -1.</_>
        <_>
          27 9 6 39 2.</_></rects>
      <tilted>0</tilted></_>
    <_>
      <rects>
        <_>
          21 16 7 15 -1.</_>
        <_>
          21 21 7 5 3.</_></rects>
      <tilted>0</tilted></_>
    <_>
      <rects>
        <_>
          21 28 2 6 -1.</_>
        <_>
          21 30 2 2 3.</_></rects>
      <tilted>0</tilted></_>
    <_>
      <rects>
        <_>
          21 33 12 12 -1.</_>
        <_>
          25 33 4 12 3.</_></rects>
      <tilted>0</tilted></_>
    <_>
      <rects>
        <_>
          22 2 16 14 -1.</_>
        <_>
          22 2 8 7 2.</_>
        <_>
          30 9 8 7 2.</_></rects>
      <tilted>0</tilted></_>
    <_>
      <rects>
        <_>
          22 5 18 6 -1.</_>
        <_>
          31 5 9 6 2.</_></rects>
      <tilted>0</tilted></_>
    <_>
      <rects>
        <_>
          23 23 6 6 -1.</_>
        <_>
          23 26 6 3 2.</_></rects>
      <tilted>0</tilted></_>
    <_>
      <rects>
        <_>
          24 9 6 5 -1.</_>
        <_>
          27 9 3 5 2.</_></rects>
      <tilted>0</tilted></_>
    <_>
      <rects>
        <_>
          25 0 14 6 -1.</_>
        <_>
          25 0 7 3 2.</_>
        <_>
          32 3 7 3 2.</_></rects>
      <tilted>0</tilted></_>
    <_>
      <rects>
        <_>
          25 17 10 8 -1.</_>
        <_>
          30 17 5 8 2.</_></rects>
      <tilted>0</tilted></_>
    <_>
      <rects>
        <_>
          26 6 14 35 -1.</_>
        <_>
          33 6 7 35 2.</_></rects>
      <tilted>0</tilted></_>
    <_>
      <rects>
        <_>
          27 1 12 39 -1.</_>
        <_>
          33 1 6 39 2.</_></rects>
      <tilted>0</tilted></_>
    <_>
      <rects>
        <_>
          27 16 3 18 -1.</_>
        <_>
          27 22 3 6 3.</_></rects>
      <tilted>0</tilted></_>
    <_>
      <rects>
        <_>
          28 0 12 29 -1.</_>
        <_>
          34 0 6 29 2.</_></rects>
      <tilted>0</tilted></_>
    <_>
      <rects>
        <_>
          28 1 12 15 -1.</_>
        <_>
          34 1 6 15 2.</_></rects>
      <tilted>0</tilted></_>
    <_>
      <rects>
        <_>
          28 6 12 31 -1.</_>
        <_>
          34 6 6 31 2.</_></rects>
      <tilted>0</tilted></_>
    <_>
      <rects>
        <_>
          28 10 12 21 -1.</_>
        <_>
          32 10 4 21 3.</_></rects>
      <tilted>0</tilted></_>
    <_>
      <rects>
        <_>
          29 17 6 5 -1.</_>
        <_>
          31 17 2 5 3.</_></rects>
      <tilted>0</tilted></_>
    <_>
      <rects>
        <_>
          35 0 4 1 -1.</_>
        <_>
          37 0 2 1 2.</_></rects>
      <tilted>0</tilted></_>
    <_>
      <rects>
        <_>
          36 27 4 3 -1.</_>
        <_>
          36 28 4 1 3.</_></rects>
      <tilted>0</tilted></_>
    <_>
      <rects>
        <_>
          38 0 2 2 -1.</_>
        <_>
          38 0 1 1 2.</_>
        <_>
          39 1 1 1 2.</_></rects>
      <tilted>0</tilted></_>
    <_>
      <rects>
        <_>
          39 0 1 27 -1.</_>
        <_>
          39 9 1 9 3.</_></rects>
      <tilted>0</tilted></_>
    <_>
      <rects>
        <_>
          39 4 1 2 -1.</_>
        <_>
          39 5 1 1 2.</_></rects>
      <tilted>0</tilted></_>
    <_>
      <rects>
        <_>
          39 6 1 12 -1.</_>
        <_>
          39 10 1 4 3.</_></rects>
      <tilted>0</tilted></_>
    <_>
      <rects>
        <_>
          39 14 1 12 -1.</_>
        <_>
          39 20 1 6 2.</_></rects>
      <tilted>0</tilted></_>
    <_>
      <rects>
        <_>
          39 29 1 2 -1.</_>
        <_>
          39 30 1 1 2.</_></rects>
      <tilted>0</tilted></_></features></cascade>
</opencv_storage>
